digraph Tree {
node [shape=box] ;
0 [label="Agency_Code <= 0.5\ngini = 0.42\nsamples = 2100\nvalue = [1471, 629]\nclass = No"] ;
1 [label="Sales <= 57.675\ngini = 0.484\nsamples = 670\nvalue = [276, 394]\nclass = Yes"] ;
0 -> 1 [labeldistance=2.5, labelangle=45, headlabel="True"] ;
2 [label="Sales <= 15.5\ngini = 0.496\nsamples = 377\nvalue = [206, 171]\nclass = No"] ;
1 -> 2 ;
3 [label="gini = 0.245\nsamples = 70\nvalue = [60, 10]\nclass = No"] ;
2 -> 3 ;
4 [label="Commision <= 12.315\ngini = 0.499\nsamples = 307\nvalue = [146, 161]\nclass = Yes"] ;
2 -> 4 ;
5 [label="gini = 0.491\nsamples = 259\nvalue = [112, 147]\nclass = Yes"] ;
4 -> 5 ;
6 [label="gini = 0.413\nsamples = 48\nvalue = [34, 14]\nclass = No"] ;
4 -> 6 ;
7 [label="Duration <= 23.5\ngini = 0.364\nsamples = 293\nvalue = [70, 223]\nclass = Yes"] ;
1 -> 7 ;
8 [label="gini = 0.478\nsamples = 48\nvalue = [19, 29]\nclass = Yes"] ;
7 -> 8 ;
9 [label="Age <= 53.5\ngini = 0.33\nsamples = 245\nvalue = [51, 194]\nclass = Yes"] ;
7 -> 9 ;
10 [label="gini = 0.301\nsamples = 217\nvalue = [40, 177]\nclass = Yes"] ;
9 -> 10 ;
11 [label="gini = 0.477\nsamples = 28\nvalue = [11, 17]\nclass = Yes"] ;
9 -> 11 ;
12 [label="Sales <= 32.5\ngini = 0.275\nsamples = 1430\nvalue = [1195, 235]\nclass = No"] ;
0 -> 12 [labeldistance=2.5, labelangle=-45, headlabel="False"] ;
13 [label="Product_Name <= 1.5\ngini = 0.161\nsamples = 783\nvalue = [714, 69]\nclass = No"] ;
12 -> 13 ;
14 [label="Duration <= 5.5\ngini = 0.097\nsamples = 430\nvalue = [408, 22]\nclass = No"] ;
13 -> 14 ;
15 [label="gini = 0.0\nsamples = 80\nvalue = [80, 0]\nclass = No"] ;
14 -> 15 ;
16 [label="gini = 0.118\nsamples = 350\nvalue = [328, 22]\nclass = No"] ;
14 -> 16 ;
17 [label="Duration <= 35.5\ngini = 0.231\nsamples = 353\nvalue = [306, 47]\nclass = No"] ;
13 -> 17 ;
18 [label="gini = 0.165\nsamples = 242\nvalue = [220, 22]\nclass = No"] ;
17 -> 18 ;
19 [label="gini = 0.349\nsamples = 111\nvalue = [86, 25]\nclass = No"] ;
17 -> 19 ;
20 [label="Product_Name <= 1.5\ngini = 0.381\nsamples = 647\nvalue = [481, 166]\nclass = No"] ;
12 -> 20 ;
21 [label="Type <= 0.5\ngini = 0.199\nsamples = 205\nvalue = [182, 23]\nclass = No"] ;
20 -> 21 ;
22 [label="gini = 0.338\nsamples = 65\nvalue = [51, 14]\nclass = No"] ;
21 -> 22 ;
23 [label="gini = 0.12\nsamples = 140\nvalue = [131, 9]\nclass = No"] ;
21 -> 23 ;
24 [label="Product_Name <= 2.5\ngini = 0.438\nsamples = 442\nvalue = [299, 143]\nclass = No"] ;
20 -> 24 ;
25 [label="gini = 0.42\nsamples = 407\nvalue = [285, 122]\nclass = No"] ;
24 -> 25 ;
26 [label="gini = 0.48\nsamples = 35\nvalue = [14, 21]\nclass = Yes"] ;
24 -> 26 ;
}